{"kernel":[0.046572965,-0.099009134,0.19390161,0.660503,0.29028475,-0.20419185,0.14357683,-0.12298094,0.55663884,0.06022587,0.17224325,0.09646449,0.03159699,0.2320023,0.09310934,0.22036014,-0.0017556676,0.15301625,0.43941584,-0.07324535,0.68814665,-0.31542802,0.20438346,-0.10921119,-0.08645872,0.12004772,-0.18676457,-0.2385108,0.19001159,0.04810696,-0.006427986,0.047982033,-0.22376892,-0.24053644,0.03563139,-0.18147308,0.36512917,-0.06948116,0.25195235,0.01175546,0.1304609,0.18590482,0.05973696,0.4322414,-0.058725562,0.08498916,-0.0011566238,-0.2252218,0.19292448,0.14209561,0.35631847,0.11441234,-0.26522496,0.048015255,-0.0129318815,0.37223637,0.34502348,-0.0560164,0.15752698,0.34605357,0.5424248,0.25707936,-0.14927599,-0.48205665,-0.05234404,-0.29005608,-0.016062154,0.17162113,0.10968179,0.042461734,0.21662302,-0.12286905,0.58725685,0.17841274,0.6950367,0.40321496,0.5229026,0.10903561,0.05053648,-0.51449937,0.012454498,0.2900716,0.18902896,-0.20122251,0.17810129,-0.07176626,-0.062724955,0.2191205,-0.3231573,0.16173403,-0.19619265,-0.03439157,0.261539,0.026485175,0.51726985,0.13794014,-0.42476353,-0.2813301,0.20214525,-0.020105198,0.10950038,-0.21443374,0.18280707,0.32826686,0.44987842,0.11612766,0.13379937,0.44919765,-0.07349611,-0.2775296,-0.16059965,0.32687047,0.14533876,-0.5370187,-0.00846258,-0.10592954,-0.5597033,-0.40124062,0.51737577,-0.020157168,0.3003737,0.37990373,0.070121564,0.23793784,0.097451806,0.22352293,-0.31135088,0.11255927,-0.7420191,0.033498403,-0.20908317,0.34046623,0.10535089,0.23236552,-0.3252029,0.09861597,0.56697416,0.012975074,-0.4917227,-0.22685929,0.15847111,0.2964634,0.17720723,-0.047479216,0.5726592,-0.024037141,0.22692603,0.400913,-0.4564608,-0.27277586,0.06102816,-0.12749021,0.13643387,-0.07041692,-0.4449843,-0.03531158,-0.123966046,0.33328688,-0.16497208,-0.24401441,-0.47785574,0.36084998,-0.264964,-0.2788833,-0.54222053,0.088390656,-0.3376971,0.38509268,-0.061636116,0.3119679,-0.087341286,-0.5085216,-0.32826138,-0.48545015,-0.28930414,-0.12600882,0.10865331,0.12882887,-0.07748955,0.076413184,0.75562525,0.17808267,-0.019898834,-0.22213095,0.39085528,-0.24117897,0.3182162,-0.37677968,0.11614407,0.09636532,-0.1383913,-0.04850053,0.22763807,0.16734369,-0.17328304,-0.2909446,-0.120450795,-0.43579,-0.43885434,0.46293163,0.53303605,-0.2955451,0.4613498,0.4777957,0.04470555,0.0078440765,0.14385277,0.47972655,-0.02370507,0.25744963,-0.34899345,0.17706808,0.1769254,-0.29566038,0.13299003,-0.37390387],"bias":[-0.022107672,-0.00016519336,-0.009728996,-0.010676946,-0.004138929,0.017807005,-0.020274475,0.00067179784]}