{"kernel":[-0.088490814,-0.123133056,0.012159608,-0.16439004,0.021172311,0.021583477,-0.16555697,-0.12591282,-0.026106853,-0.119931854,-0.2731495,-0.0291598,-0.00017104272,0.20158377,-0.109691285,0.041704003,0.028191514,0.32283038,-0.17959404,0.03468233,0.19516747,0.37394664,-0.2518374,0.18912078,-0.26477402,0.09323224,-0.06300635,-0.16741891,-0.23427907,0.014650904,0.2518706,0.18403906,-0.33408353,0.23120084,-0.33226877,0.101961665,0.32912832,0.022355117,0.34014896,-0.17288981,-0.03684604,-0.001435334,0.04779788,-0.09607231,-0.10221302,-0.08038266,-0.07415518,-0.11755021,-0.15618345,-0.19158943,0.2507207,0.11415859,-0.03913275,0.09619175,0.15016982,0.018654708,-0.097043514,-0.17266776,0.028964885,0.0393286,0.10679781,-0.0728383,0.061597224,-0.24105866,0.045931786,0.007889863,0.011764691,-0.13381693,0.1425049,-0.026778325,0.13347992,0.19210796,-0.06772563,-0.16998,-0.3910724,0.14277346,0.27917957,-0.24803507,-0.051882967,0.021758046,-0.16595063,0.13927554,0.08266347,0.05642591,0.19045751,-0.03399339,-0.1591007,-0.13341269,0.11679266,0.12005516,-0.012359947,-0.12261142,0.027486403,0.43038616,0.237208,0.010475838,-0.11518322,-0.12537012,-0.14475144,0.065855004,0.023475965,0.2584672,0.11623126,-0.07305801,-0.36990625,0.15819424,0.17106807,-0.16403438,0.068885,-0.23815687,0.0666673,0.14566356,-0.24755277,0.115325145,-0.1235135,-0.40410686,0.030531794,0.09496654,0.00037061298,0.16448258,-0.020504022,0.06590318,-0.10557139,0.02806865,0.3056226,-0.25969607,0.046609256,0.06478952,-0.07330198,0.24349871,-0.1324992,0.35255617,-0.17393364,-0.19390912,-0.022694387,0.015714074,0.13867258,-0.053759668,-0.21110459,-0.15463857,0.067020774,-0.28378826,-0.1654887,-0.2938591,0.08326176,0.1410625,-0.10923419,-0.07554249,0.0077967853,0.17313983,-0.1640899,-0.10242605,-0.018047046,0.09342228,-0.0021075811,0.021606935,-0.12023961,-0.17190595,0.11802729,-0.17544448,0.07119286,0.026880126,0.23657341,0.24258678,-0.03966323,-0.05182587,-0.3225336,-0.14987597,0.20047185,0.12338701,0.06646112,0.26985806,0.15758508,-0.089251116,-0.14513777,-0.13558397,-0.11984879,0.06886166,-0.46089396,0.14365353,0.0476528,-0.021446537,0.008068314,-0.14997397,0.23443756,0.2058396,-0.16027135,-0.017614558,0.08516202,0.0020603763,0.1276736,0.17810227,0.03398578,-0.13206525,0.24114971,-0.053360436,-0.17858513,0.08443045,0.2460911,-0.049841385,0.024183037,0.1788215,-0.18341827,0.13199566,-0.05696045,0.11824631,-0.15117823,0.037718024,-0.029659536,-0.043142002,-0.05093328,-0.3153911,-0.017964216,0.02547505,0.2397486,-0.31544745,-0.21685357,0.18529785,0.08184063,0.25931078,0.077139206,0.024434758,0.114524126,0.078353465,-0.0091082165,-0.25092885,-0.39651683,0.22875999,0.16277088,-0.17458428,-0.012965967,-0.0050967643,-0.22917758,0.26781556,0.084319875,0.040524893,-0.29318398,0.12246795,-0.17609322,-0.072604984,-0.2739597,0.03328943,0.02696396,0.14984854,-0.045894273,-0.30803016,-0.08260579,-0.30574137,0.13355899,-0.2148196,0.019485904,0.19591427,-0.12734221,-0.09138109,-0.4796737,0.024120886,0.1718422,-0.28872073,-0.3900719,-0.08817769,-0.05579555,-0.093936026,-0.072178185,-0.09335355,0.17120549,0.014427454,-0.05204992,0.03193599,0.25032893,0.14609493,0.12081943,0.07790936,-0.3320674,-0.14316885,0.07319576,0.112018034,0.29784253,0.3525332,0.14789948,0.037678625,0.09397617,0.12777695,-0.20782542,-0.27932918,0.20096037,0.09433166,-0.11107584,0.04496524,0.04359466,-0.061620258,-0.23991929,-0.26942173,0.059096202,-0.084494285,0.06807604,0.11656135,-0.1962757,0.06658659,0.106163815,0.05601993,-0.4086319,-0.035592094,0.13539189,-0.10014644,0.1599578,-0.03748494,-0.09055117,-0.08306678,0.1942796,-0.30458212,-0.15514633,-0.1238374,-0.15826699,0.033737145,-0.18164009,0.07170838,0.037953086,-0.29129916,-0.021944676,-0.16499543,-0.22923754,-0.1362921,0.06805223,0.28051123,0.041765727,0.09788032,0.13187103,-0.26216632,0.07255273,0.07834507,0.05688354,0.16042973,0.02859027,-0.21588165,-0.020437293,-0.18890898,-0.17291203,-0.02189099,-0.06199248,0.19344783,-0.28000945,-0.17654464,-0.03901881,0.104238406,0.15773386,0.16181406,-0.06854918,0.15658464,0.02726033,0.053244874,-0.08156056,0.07758339,0.107507735,0.18563752,-0.07952926,0.060802065,-0.080076694,-0.49574095,-0.053423032,0.33692938,0.028591348,0.1474615,-0.029900115,-0.1254003,0.004958266,0.18450546,-0.16600275,0.12971085,0.21394163,-0.03867461,0.01701018,-0.031960323,-0.074101806,-0.2851333,0.011987124,-0.112189546,0.1048863,0.12723188,0.09504133,-0.058105055,-0.22469515,-0.13101535,0.08523281,-0.2505818,-0.08266027,-0.042773917,0.21172707,-0.365488,-0.26460257,-0.029406274,0.14837176,0.14651841,0.0062562926,-0.15416795,-0.07232707,-0.23134069,0.37478572,0.16035987,-0.006872631,-0.082933046,0.009133609,-0.034442164,0.29583436,-0.15693906,0.07020724,0.06607648,-0.095335536,-0.17715256,-0.0833484,-0.17060496,0.11901264,0.08281887,0.35383028,-0.09374164,0.23679107,0.13509712,-0.1323689,0.2890076,0.20320992,-0.17682472,0.008561105,0.002920951,-0.1525702,-0.11845058,0.17700016,0.036222704,0.03267062,0.35607645,-0.008395562,-0.02850353,0.12610616,0.37104508,0.3257896,0.24718371,0.034267347,0.15049969,-0.09977643,-0.01538399,0.053810455,-0.09476242,-0.060840238,-0.2499843,-0.27973542,-0.3464628,-0.0103821885,-0.14262037,-0.025916725,0.37797523,0.07621978,0.016739286,-0.018204702,-0.006933864,-0.30244616,0.38312855,0.0027512042,-0.23116106,0.11437418,-0.13716145,0.07313616,0.040268578,-0.4231951,0.5264752,0.25960872,-0.077447005,0.10356251,-0.05552103,0.12495069,-0.16874124,-0.24534182,0.0944934,-0.03088829,0.12283986,-0.26796725,-0.11371708,0.08917748,0.39734915,-0.042802617,-0.14352328,-0.16053216,0.04318859,-0.029009683,0.23923348,0.12899257,0.22202115,-0.2853775,-0.21343867,0.04010039,-0.08459902,-0.32035616,-0.09721913,0.0908648,-0.031084012,-0.39384577,-0.37683156,0.26350084,-0.011906132,0.045945715,-0.35187975,-0.060056243,0.039044596,0.13154341,-0.06224885,0.13461868,0.110722356,0.11054614,0.08930358,0.031157402,0.4690622,-0.068148464,0.020868061,-0.036753718,-0.07711951,0.23036048,0.11157401,0.0056071957,-0.17306642,-0.05360777,-0.08491602,0.045663707,-0.46919575,0.16232064,0.12356075,0.07527251,-0.16452777,0.20135869,0.22992684,-0.20692967,0.26848432,0.26065323,0.06917736,-0.24866782,0.100265115,0.025715137,-0.42242998,-0.12101628,0.10722426,0.119446546,0.20496275,0.05898582,0.29076666,-0.11836116,-0.1314694,0.026951212,-0.12726766,0.022849903,-0.11398076,0.1506871,-0.01696896,-0.07471595,-0.25842318,0.121993646,-0.13584626,0.23671119,-0.038730554,0.02880041,-0.16491772,0.12330872,0.23357496,0.018946623,-0.20238888,-0.08180441,-0.052099008,-0.021802539,0.07392638,-0.01844889,0.23183432,0.1669626,-0.23498723,0.03457797,-0.023117779,-0.17190686,-0.12109575,-0.012502613,-0.04218106,-0.028613746,-0.041764196,-0.24660397,0.007705675,0.16403733,0.18948403,-0.022225501,-0.070212856,0.35476705,-0.18005975,0.18053785,-0.029747555,-0.1630984,-0.17346403,-0.16924104,-0.12311321,0.12923399,0.17234616,0.075957105,-0.07285378,0.14537157,-0.13361861,0.18775207,-0.09908874,-0.07953943,0.11325429,0.20881146,-0.07039962,-0.03278306,-0.07000073,0.026457755,0.092418656,-0.21261838,0.052776046,-0.118057996,0.08254163,0.022280032,0.109834395,-0.25936478,-0.05311388,0.0044830483,0.069139205,-0.07729309,0.0074773226,-0.12347489,-0.093148276,-0.2705319,0.2942914,-0.21896695,-0.0110606905,0.040021874,-0.03424337,0.1940314,-0.0860417,-0.053622223,0.04815745,0.22606732,-0.21461274,0.23109412,-0.19673567,0.16119483,0.10563412,0.07075259,0.23855123,0.54520047,-0.20200044,0.16666107,-0.37811482,-0.3073141,-0.21776605,0.2129615,-0.020192545,-0.02473946,-0.042695493,0.13677043,-0.082457505,0.32934108,0.07347129,-0.046744976,0.053454347,-0.23469056,0.076928824,-0.15946536,-0.08812738,0.17059016,0.1760155,-0.03188334,-0.13633591,0.02818497,-0.00962414,-0.16398437,-0.25428563,-0.32309607,0.15939045,-0.18534037,0.113860995,-0.027519587,-0.0470112,-0.057140607,-0.0011337743,-0.20020458,0.058104005,0.3330275,-0.18056397,0.05654497,-0.0908027,0.00069624424,-0.0289881,-0.18029454,-0.019108662,0.1945642,0.085938595,-0.20943053,-0.08141389,-0.39536607,0.04817178,0.18492925,-0.027944548,0.08015223,0.24736577,-0.11809216,-0.10448409,-0.017481383,0.056801785,-0.110770114,-0.021130765,0.016480742,-0.12767954,0.022420237,-0.08732345,-0.26485944,-0.03588664,0.11984917,-0.0129274335,-0.21019307,-0.08059779,0.1392722,-0.15120763,0.117746405,0.23565184,-0.25447932,-0.07576873,0.06849537,0.0098300455,0.16004941,0.29945725,0.22122441,0.04401977,-0.03326945,-0.17297404,0.39642966,0.13256377,0.034133613,-0.14737484,0.023047158,-0.20205647,0.09964495,-0.13886245,0.016013762,0.04673403,0.10482345,-0.11657235,0.21638629,-0.12358654,0.035405327,-0.011517228,0.28525397,-0.3376456,0.05959279,-0.039745737,-0.06966845,-0.21452135,0.047816753,-0.16050257,0.22883184,0.059092864,0.11025716,-0.108754516,-0.077551395,0.0063848197,0.04626829,0.14166404,-0.013043098,-0.0009613339,0.3439987,-0.23580372,-0.07440934,-0.10447406,-0.13144834,0.046270613,0.075126514,-0.0025873992,-0.082892746,0.0957459,0.084342614,0.012297184,-0.0051196474,-0.30367002,0.05795187,0.07757187,0.0751552,-0.21362746,-0.10433586,-0.05636238,-0.024895655,0.21271263,0.11336364,-0.055186514,0.19546366,-0.0033550402,0.18723449,0.04103348,0.19979422,-0.052027643,0.23363967,0.108176455,0.256061,-0.026816119,0.014769107,0.13766499,0.15049914,-0.23815799,-0.011038629,0.23552845,0.1601895,-0.11556138,0.14419393,0.30281216,0.27158862,-0.014978355,0.13231806,0.026437463,-0.18210442,-0.03217815,-0.16464044,-0.13827263,0.040965114,0.17391294,-0.19311742,0.027397348,-0.08616164,-0.090841815,0.2230882,0.045481347,0.23709872,0.029714566,-0.23814785,-0.11766205,-0.043029957,0.0000030230767,-0.13992105,0.110298365,-0.029630309,0.035445936,0.21986756,-0.23215403,0.094450474,0.07681319,-0.16667682,0.06952736,0.013826258,0.038172625,-0.07860659,0.01716946,-0.2924091,0.011098081,-0.049909756,-0.20607138,-0.07698193,-0.054383833,0.017565357,-0.021735106,-0.049009714,-0.44788262,-0.009573086,-0.26486117,-0.21146475,0.045461398,0.20333995,-0.01730015,0.34952798,0.2418698,0.19793807,-0.004093585,-0.16440879,0.06168783,-0.067930974,0.22016208,0.10899421,0.112700984,-0.04053665,-0.14994033,-0.121566266,-0.14732923,-0.12490783,-0.21800777,0.18557741,-0.25329438,-0.13831393,-0.25861847,-0.24315864,0.05823482,-0.0963403,-0.10190681,-0.12349989,0.42362347,-0.10120331,0.08165811,-0.028681772,-0.01823144,-0.046216495,-0.023838237,-0.1272043,0.0434272,0.0885912,0.116076455,-0.22228394,-0.20998828,-0.11417247,0.12484964,-0.08650016,-0.19186896,0.019036084,0.11849257,-0.000049231705,-0.27216464,-0.17235935,-0.061869167,-0.18280393,0.116919026,-0.21379434,0.17825788,-0.08886745,0.080228314,0.044583574,-0.08155081,-0.2548122,-0.0059120916,-0.16058733,0.10505469,0.12376546,0.2642987,-0.107479855,0.038412344,0.105059765,0.06824585,0.14147983,-0.049448904,0.071149595,0.09463995,-0.21339749,-0.10370117,-0.16370274,0.11804199,0.11835987,0.08269956,0.07702311,0.11340807,0.014610127,0.09830418,0.23781684,0.015923891,0.011644493,0.22812194,0.023075784,0.22108373,-0.21321806,-0.051722255,0.0012064595,0.0817165,-0.32921904,0.08346275,-0.114378385,-0.023029206,0.0887426,0.04156109,-0.0854174,0.09319494,0.15055244,0.19335759,0.054538734,0.15669212,-0.08419172,-0.086176194,0.09164875,0.4107696,-0.1543121,-0.053615443,-0.055197358,-0.067483336,0.1477382,0.34979114,-0.21206352,0.09387832,0.05892546,-0.061843228,-0.043793257,-0.4278369,-0.092016,0.012397594,-0.04927686,0.2617339,-0.08601388,0.08953077,0.14414425,0.092509,0.1644471,-0.42834705,-0.038107246,0.023726845,0.0352743,0.20916206,-0.080019355,-0.19918974,0.030560944,0.12092936,0.1415724,-0.12144337,0.22411604,0.19947658,0.06066905,-0.05758335,-0.17886598,0.06754238,0.04541937,0.033867773,-0.0010416675,0.03123829,-0.15803984,0.074882165,0.09548687,-0.1151866,-0.15486526,-0.030126972,0.030942,-0.20015173,-0.15968437,-0.083150886,0.01615674,-0.029723432,0.20766896,-0.4443484,-0.015337213,-0.2907187,-0.043823224,0.082117334,-0.2067629,0.020143349,-0.139127,-0.19835208,0.29124585,-0.07476699,-0.0078787375,0.0731944,-0.12267282,0.1557629,0.12533522,0.01190847,-0.08080149,-0.10789549,-0.19578207,-0.050521784,-0.14224115,0.055150267,0.06579406,-0.20896044,0.11965891,-0.07876152,-0.3908411,0.1582827,-0.117096595,-0.26247248,-0.06743819,0.007494292,0.17519844,0.038606003,0.08067329,0.087323725,-0.03841813,0.09712081,0.12331076,-0.03516145,-0.36110336,-0.2187811,0.08965006,0.012941886,0.0057123043,0.116633594,0.061989293,0.18578973,0.075011164,-0.29453883,-0.06093773,0.039220914,0.07198891,-0.08498077,0.082679436,0.048996713,-0.15447624,-0.02073963,-0.119650096,0.061503615,-0.005186474,0.04334107,0.0025201836,-0.3792981,0.017787771,-0.040497378,0.20514072,0.046756107,0.035816647,-0.014067546,0.09190103,0.013768233,0.16450149,0.11184963,0.20942216,-0.08579051,-0.14153236,-0.0061540725,0.01623054,-0.0659364,-0.070455745,0.05594789,-0.0034472162,-0.037226968,-0.075132295,0.01405627,-0.02880601,-0.073405996,0.13906904,0.12232084,-0.079395615,0.14725538,-0.050898608,-0.025064703,-0.1485711,-0.07225772,-0.17264749,-0.16449022,-0.047024403,-0.43222266,0.0882252,-0.07295647,-0.22789595,0.19436565,0.08209976,0.04850865,-0.07829046,-0.054807913,0.03212471,0.20206387,-0.007056446,-0.09343986,0.032924615,0.22566086,-0.16676868,0.19579598,0.13839582,-0.065565504,0.074212864,0.059450146,0.1010981,-0.13815977,-0.19293682,0.12581705,-0.16936213,0.026440999,0.1671041,-0.049845275,-0.38563728,-0.028932586,-0.017677536,-0.44828105,-0.13194484,-0.041350853,-0.20211066,0.13596205],"bias":[0.015557564,-0.0025533456,0.004436618,0.0024466626,0.0,0.0042817327,-0.014292233,-0.018094953,0.011486737,0.005883823,0.0029201973,-0.014667581,-0.013597256,-0.009761516,0.0,0.006854306]}