{"kernel":[0.14892101,0.1264499,-0.12972447,0.2669912,0.1096265,0.061098155,0.036427684,0.021544602,0.2229152,-0.00967806,0.22077681,-0.368145,0.1283554,-0.078297295,0.2630027,0.007484797,-0.14168502,-0.21434154,0.12365553,-0.01590058,0.27192324,0.41709295,0.046678092,-0.1348737,0.19615665,0.27603644,-0.2392933,-0.1940166,0.17308559,-0.38228786,0.010558343,0.0332623,0.18079387,-0.01539351,-0.16767974,0.17312436,0.14765346,0.015399882,-0.060478754,0.113252625,0.011943241,-0.00005484445,-0.15801467,-0.20187552,0.0085233245,0.012748406,-0.2792728,-0.14572223,0.0017204308,0.07621024,-0.050661888,0.26700976,-0.046416968,-0.23788662,0.1281336,0.061100803,0.1814601,-0.28212062,0.039875653,-0.126069,-0.073555976,-0.0002431164,0.08676462,0.10137581,0.14656776,0.08522253,0.28554323,-0.013254032,-0.1394973,-0.47901466,0.024899788,-0.06156571,-0.013939627,0.1980753,-0.27565166,-0.22324814,0.16792585,-0.014279478,0.07243917,0.055187795,-0.24985982,-0.13604566,0.15201873,-0.032175314,-0.082251236,-0.3796971,-0.10379114,-0.3307614,-0.09714621,0.1762531,0.18571894,0.13324209,-0.2447044,-0.07405943,-0.06056645,0.32455638,-0.1303897,-0.34401977,-0.1515567,0.2548568,-0.20388639,-0.08672689,0.16602893,-0.19662909,0.10016304,-0.084585525,0.13244148,0.2016594,-0.11860812,0.30309758,-0.045996793,-0.020828245,0.022981955,-0.033944953,-0.16969799,-0.115963876,0.112088546,-0.06650636,-0.1221052,0.102872066,0.045160204,0.16889293,0.0014756349,-0.16171026,-0.052284162,0.270214,-0.111721106,-0.15629502,0.04334998,0.030794736,0.077360675,-0.035168454,-0.14589714,-0.077311575,-0.03338374,-0.15112656,-0.11757256,-0.04010816,0.14264922,-0.09097233,0.1486716,0.03516467,0.052031353,0.07083427,-0.04822852,0.13419701,0.15261936,-0.028361214,0.10206251,0.2413967,0.16314435,-0.13363793,-0.037491623,-0.045886666,-0.12477188,0.21834445,0.04601074,0.103544354,0.046885405,-0.3477907,-0.080848455,0.24219997,0.18311976,-0.06699138,0.09877509,0.071623415,0.18732817,-0.056614935,-0.10854589,-0.27956417,-0.1522436,-0.10847655,0.090778485,-0.15691975,-0.30890182,0.014401182,-0.20170236,-0.24208958,-0.24937057,0.33540544,0.050448947,-0.0004037067,0.14593233,-0.18321437,-0.20251772,-0.025501586,0.18632305,0.36688837,-0.046282105,-0.18358727,0.10920665,0.137864,-0.10576005,0.052051924,0.32769367,0.2846098,0.15139617,0.21648882,0.0324783,0.39494804,-0.21428667,0.102320954,0.4144332,-0.07382829,-0.051030714,-0.27826133,0.017034233,-0.018066423,-0.23499538,-0.17535187,0.05965562,0.009130927,-0.018456383,0.045696095,-0.19178165,-0.04436888,-0.070081145,0.1071212,0.22276059,0.20780556,-0.111290656,0.3044931,-0.15906638,0.07847058,-0.3552572,-0.26547077,-0.062464956,-0.2613859,-0.26943216,-0.3523549,0.37381953,0.011701728,-0.31216747,0.04495525,0.044373948,0.02146821,0.075211465,-0.26683623,0.076213926,0.09764824,0.019562008,0.23613986,0.18303217,-0.14414233,-0.09175074,0.1117596,0.16791727,0.164197,-0.21192291,0.100127175,0.11494228,-0.12807065,0.07209003,0.32108107,-0.031024214,0.2609211,-0.0022186527,-0.13369633,-0.12660585,0.30198574,-0.06755993,0.044419974,-0.015125187,-0.29424232,-0.074560374,0.45485526,-0.0209722,-0.010474296,-0.01907311,-0.1604442,0.040705387,0.08851722,-0.22624467,-0.09766384,-0.03794804,0.26565087,0.0023823343,-0.050692998,0.12080788,-0.05970611,-0.08934582,0.061628446,-0.0741172,-0.10232278,-0.044204365,0.268315,0.07867764,0.21716931,0.072155625,-0.04173547,-0.059295744,-0.027851924,-0.28939122,0.081593975,0.1351679,-0.11891138,-0.049960826,-0.0738346,0.18955302,-0.015258341,-0.021221526,0.04611462,0.048511066,0.071304224,0.09007149,-0.20678249,0.097535804,-0.39432868,0.071667984,0.044852488,0.12672102,0.036804236,-0.10705767,-0.11714477,-0.05008366,-0.19940752,-0.005463816,-0.034568008,0.017415429,-0.060730737,-0.1888693,0.13387957,-0.2072804,-0.30417237,0.0609781,0.13132349,0.2660487,-0.19708867,0.090617426,0.09997703,-0.13714008,-0.16869515,0.06254485,-0.09708691,-0.076181814,0.13222769,0.049686514,0.05103403,0.28561234,-0.10029416,-0.03942455,0.084123105,0.13295832,-0.083858855,0.13151139,-0.071176104,-0.021076947,-0.12834553,-0.11720902,0.27979207,0.061117623,0.11372278,-0.11348014,0.13233037,-0.19788146,-0.1890125,0.10210033,0.057513356,0.19791901,0.006431141,-0.047147773,0.2984447,-0.25743863,-0.10851108,0.007025743,-0.047433812,0.055121176,-0.022895902,0.046523973,-0.23742142,0.0010660707,-0.06266084,0.13287306,-0.06778386,-0.031633455,-0.16800478,-0.15482035,0.13846661,-0.28053263,0.35308152,-0.16291112,0.057703953,-0.14387101,0.40261617,-0.19851397,0.07073929,0.0978394,-0.07983087,0.021695044,0.3544105,-0.06718245,-0.12920298,0.06876139,0.07997042,0.083389364,0.28746715,0.0057318923,-0.003836778,0.3155998,-0.13766386,-0.032515015,-0.20237665,0.074874274,0.15460321,0.07931478,0.27194715,-0.0950246,0.022321707,-0.11488771,0.08273418,0.28420568,-0.097678736,0.11745486,0.019849295,0.16914761,0.034453683,0.29889956,-0.24683101,-0.02529897,0.13904898,-0.03873725,-0.024896141,0.08110212,-0.009386334,-0.17224483,-0.25906482,-0.117929175,0.023032159,0.009513472,0.108548425,-0.17939155,-0.05170446,-0.033530418,0.10197152,-0.08449773,0.045530118,0.018243985,0.07929661,0.07348858,-0.23146369,0.29061824,-0.10284684,0.06272443,-0.22053048,-0.027787814,-0.2499647,-0.11369183,-0.15629086,-0.11347449,-0.038883597,-0.11816813,0.119204685,0.13367797,-0.19589192,0.15167002,-0.1791333,0.017858205,0.2493074,0.012135607,-0.1461567,0.111667104,0.012431364,-0.0028563947,-0.02537698,-0.05313754,-0.015240279,-0.08686272,-0.25395444,-0.13659523,0.30170387,0.41595292,0.06245162,-0.12274551,0.09745063,0.19240598,0.09694287,0.019277018,-0.34457445,-0.089621335,-0.058557227,-0.1662884,0.46987978,0.010002103,0.1106267,0.062307607,0.22584565,-0.11209951,-0.10802156,0.00015398693,-0.44672915,-0.01642708,0.109251425,0.11620427,0.08460885,-0.22108908,0.07094921,-0.22635694,0.06183476,0.11866651,-0.025161827,0.15980187,0.068673655,0.03805905,-0.21120521,0.19584085,-0.12240955,-0.14500706,-0.29313964,-0.056276962,-0.04804532,0.12017463,0.19640921,0.10079536,-0.052920032,0.24217455,-0.15295242,-0.12507577,0.11485998,-0.037100438,0.21512793,-0.11508496,-0.087138705,0.05621606,0.1449632,-0.009287546,0.27780148,0.09274478,-0.18743548,-0.3273634,0.28052467,-0.21795528,0.20881635,0.05315559,0.43801108,0.11992799,-0.07542971,0.039640293,0.108604655,-0.10836753,0.2392095,0.07568956,-0.05836826,0.15852031,-0.114187405,-0.004767425,-0.053602442,-0.14056653,0.06409272,-0.07483848,-0.08051684,-0.18917266,-0.10477032,0.11252854,-0.16299967,0.14771047,0.1297835,-0.1039704,-0.081694335,0.25693783,-0.12723732,-0.4507486,0.17834675,0.018668141,-0.13597594,-0.08664694,0.019051192,-0.21169682,-0.13455234,0.023751302,-0.17614843,0.03604583,-0.14165862,0.03941447,0.19352067,0.014320145,-0.14613879,0.14301932,0.043045215,0.077547394,0.11647255,0.2623454,0.18507841,0.05101481,-0.01736304,-0.0790296,-0.057613857,0.25027275,0.10757025,0.1171993,-0.029726984,-0.07319631,0.029756252,0.1692394,0.0067253085,0.094034865,-0.07112867,-0.2617618,0.008524591,-0.21106124,-0.01667147,0.18869996,-0.01469995,-0.08401337,0.080217935,-0.16344966,-0.009136506,0.08499457,-0.23958474,0.21572703,0.11416267,0.024052477,-0.35675037,0.11022782,0.34539467,0.31140804,0.21070042,-0.06764435,-0.2902317,0.114614,-0.114344016,0.15755418,-0.139349,0.0007323898,-0.090316966,0.1962843,-0.26542544,0.14779593,0.04720673,0.12581477,0.1179651,-0.024563035,-0.23617426,0.13653924,0.053555824,0.043359347,-0.13119037,-0.08111266,0.18062116,-0.16313425,0.11731446,-0.105416946,0.09345899,-0.103639506,0.21321954,-0.19899936,0.17104031,0.22900169,0.011152991,-0.21336894,0.08194294,-0.13767032,0.28305426,0.06310023,-0.11847415,-0.49179345,0.18428054,-0.15562761,0.008820725,-0.0013126612,0.0035609778,-0.015950106,0.022911115,-0.22202642,-0.073355,0.02197961,-0.19439952,-0.19406138,-0.13797747,0.038836595,0.05711727,-0.32392174,0.06095681,0.029050143,0.03854068,0.33658707,0.06077082,0.25077713,0.16584696,0.044439837,0.51356727,0.04163448,0.22613437,0.11799054,-0.13753963,-0.29488495,-0.17337653,0.097749,0.1982924,-0.042481706,0.13151383,0.12936245,0.17461342,-0.20640562,-0.06285686,-0.26586372,0.17463826,0.02595777,0.075025365,-0.15940168,0.18472426,-0.18319102,-0.053880285,0.044872344,-0.026145795,-0.15723199,0.23540898,0.0030979768,-0.05563103,-0.19221155,-0.03771758,-0.12377609,0.008540599,0.049902115,0.23717219,0.13911803,-0.050922424,-0.100903906,0.07119076,0.39534336,0.018046772,0.07577729,0.19781521,0.16707437,0.19509691,0.1970302,-0.0028800047,0.15042828,-0.08497889,0.22734854,-0.048389196,0.10525203,0.10258937,0.03128518,-0.06317799,0.18838784,-0.22525567,0.1938086,0.20871046,-0.03613217,-0.062287614,-0.15746953,0.0591163,-0.0041825753,-0.1428612,-0.1343969,-0.03671966,-0.09741416,-0.0122375805,-0.16218038,-0.05078567,0.15823777,0.10008942,-0.09528749,-0.0006676962,0.024258694,-0.17863683,0.036253124,0.17938963,-0.038727824,0.0010192448,0.0635806,0.17568526,-0.12475246,0.069380045,-0.30592918,-0.010909301,0.25099802,0.12101095,-0.23299956,0.15035109,-0.039283466,0.14772874,0.11207873,0.040552527,0.12645453,-0.09940279,-0.109724894,-0.08721495,0.09411339,-0.07057982,0.14803569,0.07871896,-0.120304935,-0.021289317,-0.22132368,-0.07185172,0.057612605,0.0030102874,-0.23131032,-0.12714775,0.3831593,0.016582087,0.008831381,-0.06825466,-0.14779727,0.065184996,-0.1730587,0.22669421,-0.24375324,-0.033252265,-0.09448537,0.032669958,-0.02103295,-0.08785927,0.15118165,0.29093692,0.049948506,-0.08014722,0.077156164,0.04027221,-0.07729724,0.012870937,0.34040615,0.24560049,-0.11482358,0.28257924,0.15668073,-0.21484745,-0.3696222,0.04846241,-0.0050639203,0.05482062,0.11151041,-0.0334997,-0.2790316,0.035264377,-0.05994829,-0.16613495,-0.23886727,-0.005307756,-0.07558035,0.016933022,-0.1372307,-0.148295,-0.021806477,0.06259253,0.094922245,-0.06438021,0.2694962,0.2774216,-0.2182381,0.12683335,0.20758618,-0.0987655,-0.24973653,-0.31068194,0.19398834,0.103800334,0.4303628,-0.3131582,-0.05574422,0.1467432,0.0604469,-0.13626352,0.09926024,0.054270867,-0.056021582,0.18783572,0.0782221,-0.0011038206,0.047395863,0.24391702,-0.19703002,0.04598345,-0.21939677,-0.08911609,0.41254744,-0.13817157,-0.30268273,0.1681315,-0.15550467,0.37285993,0.25841257,0.3275908,0.33767116,-0.09612574,-0.17292319,0.19314812,0.06333033,-0.16783842,-0.27022782,0.058503177,-0.05096705,0.017324977,-0.096227586,0.035967104,0.0016794654,0.083027825,-0.21079893,0.2848054,-0.10521556,0.23839742,0.024792565,-0.10051473,0.15579955,0.09999854,0.29787207,-0.12762655,-0.068506055,0.23383312,0.2579777,0.022922918,0.14386688,-0.06959408,-0.016540531,0.09429741,0.2916632,-0.09358652,-0.2637002,0.3551706,-0.154131,0.09908492,-0.22203688,0.14309324,-0.028179873,0.14956732,0.12790096,-0.11468537,-0.017826406,0.14693852,-0.31271824,0.05943847,-0.09982709,0.022470813,0.09460133,-0.4028265,-0.2965636,0.021525444,0.0053889533,-0.32412353,0.10580136,0.09508401,-0.01329722,0.22833242,0.37342498,0.027512161,0.021076333,-0.012259917,0.09049543,0.19539298,-0.024322236,0.08812822,0.06180468,-0.18614107,0.038736984,-0.30564937,0.11192791,-0.059214883,-0.102506354,0.12255202,0.07388121,0.08497033,-0.17169361,-0.12159556,-0.021076038,-0.2158268,-0.062986225,0.07488448,-0.15106404,-0.073822,0.3662427,-0.17070115,-0.097853564,-0.18091899,-0.16049363,-0.17875455,0.16752084,0.06000707,0.030778846,-0.06314099,-0.098698735,0.0049899905,-0.17330576,0.035294317,-0.014657255,0.13346429,-0.048584916,-0.20684214,-0.10298849,0.20381397,-0.13302152,0.13432552,-0.13399202,-0.19340786,-0.28674817,-0.07994043,-0.0017095975,0.054405607,-0.14302213,-0.13779902,0.028113458,0.017678887,-0.32664248,0.11301596,-0.14447507,-0.19955023,0.02987544,-0.12937842,0.16514103,-0.16237889,-0.35027158,0.2542773,0.046248455,-0.11036566,0.17258206,-0.09347623,0.2736124,0.3279656,0.10192808,-0.15833567,0.118112184,0.037021652,0.08705679,0.051781792,-0.14189363,-0.09873053,-0.16137855,0.2726973,0.17344692,-0.11093743,0.010067597,-0.13584204,0.10940411,0.16536732,-0.24308272,0.16538155,0.15764621,0.043646477,-0.24767902,0.10079103,0.033669975,0.022845019,0.26679125,0.009188831,-0.005936918,-0.002830906,0.017972702,-0.041419793,-0.01250872,0.06387596,0.1804729,-0.012701786,0.016172746,0.13184674,-0.26547143,-0.10859801,-0.098240905,0.04591496,0.090427905,-0.09420281,-0.059101548,-0.13079539,-0.29120967,0.42635974,-0.08696451,-0.1039847,0.19246975,-0.1265276,-0.14120306,0.020023378,-0.18615744,0.04811844,0.02155239,0.015201049,-0.14025733,0.2052465,0.2714821,0.08979213,0.107049696,0.004491744,0.16905603,-0.40205675,-0.08153504,0.12769417,0.18853053,-0.13209581,0.028743654,-0.18587446,-0.046146065,-0.30607173,-0.046144485,-0.11912406,0.08976312,-0.12558123,0.3887394,0.18593149,-0.020576052,0.018698968,0.089397095,0.16844407,0.14524207,0.25972226,0.093103215,-0.2066231,0.17401858,0.08982745,-0.3825976,0.079466835,0.10785657,0.10107758,-0.025251612,0.044048954,-0.4700713,-0.15965253,0.3363228,-0.28946614,-0.016221369,0.18063271,-0.15716188,-0.2484978,-0.05468665,-0.09176289,0.0003483942,-0.12522577,0.33421946,0.09877737,-0.36932272,-0.1277571,-0.24517864,-0.038642406,-0.15037985,0.3261993,-0.10836995,0.07156821,0.03883076,-0.053161856,-0.08066062,0.1348468,0.12320875,-0.12851861,-0.11970116,-0.21720567,0.030170586,-0.28671446,-0.040668,-0.27778187,0.16799703,-0.083833806,-0.087061085,-0.07122744,-0.08735195,-0.12034204,0.016852066,-0.19800909,-0.12068844,-0.033894915,0.3111702,0.07571623,-0.1462954,-0.0010063814,0.09865572,-0.22618288],"bias":[-0.019459073,-0.009329907,0.017092248,-0.013028977,0.018545492,0.0015792798,0.0017624926,0.009474668,0.0063015567,-0.03224885,0.014680066,-0.0192731,-0.020055993,0.008509627,-0.006988987,-0.0012691979]}