{"kernel":[0.18491802,-0.008709711,0.048320044,-0.17014183,-0.028558513,-0.032895435,-0.41483492,0.46064335,-0.2156454,-0.27559084,0.2094431,0.21586649,0.028263377,0.21946721,-0.13578765,0.029548747,-0.09866847,0.6145649,-0.054035533,0.030502597,-0.20708592,-0.4295579,-0.4082976,0.072834775,0.18669601,-0.31444278,0.05452493,0.26761666,0.22389203,-0.48598838,0.31932262,-0.41476792,0.39153388,-0.15055956,-0.19885482,-0.36181584,-0.53743076,0.053449675,0.32967114,-0.17312749,0.20165202,-0.2306037,-0.047823474,0.20069191,0.04854925,-0.09327013,0.1438731,-0.40772668,0.1991365,-0.3421758,-0.0022194348,-0.11080807,-0.014990518,-0.24396968,0.4684219,0.14172237,0.092317685,-0.29896495,0.20619489,0.29782045,0.12614608,0.21720247,-0.060408287,-0.0067211385,0.46050316,0.16204058,0.017498398,0.2569756,0.21117117,-0.07805697,0.07973781,-0.118281364,-0.24136819,-0.020969376,-0.48812437,0.13236447,0.25043303,-0.24162053,0.115379445,0.23158781,0.08473339,-0.04189203,-0.12094874,0.046115942,0.42675054,-0.31395894,-0.018415637,-0.12890163,-0.3718014,-0.026242994,0.4097682,-0.14018278,0.08735591,0.48350883,0.0801954,0.18967062,-0.2657899,0.3379173,0.09143598,0.21387704,-0.27323294,0.2082473,-0.350585,0.27378288,-0.058593765,0.40914124,-0.3683877,-0.3320514,0.11857917,0.59341455,-0.26357347,-0.08381206,-0.098580055,-0.35775962,0.16083236,-0.0734402,-0.26676205,0.083064705,-0.36877954,-0.2534059,-0.15260531,0.18323116,0.027048683,-0.30068615,0.19779192,0.117221475,-0.35208887,0.29336873,-0.37437272,-0.10348233,-0.20950067,-0.0902985,-0.21122077,0.36881432,0.5233835,-0.011857684,-0.37070468,-0.11308069,0.15391341,-0.0067235944,0.33491507,0.008458075,0.43789533,0.16160609,-0.029291293,0.14522995,-0.51442844,0.074191295,0.019936161,-0.0074089263,0.0543993,0.30233213,0.0513034,-0.01194893,0.1213362,-0.12443863,0.0061228853,0.17880358,-0.21954802,0.4655444,0.22513217,0.24903883,0.15745944,0.03194314,0.18725006,0.045484025,-0.13550816,-0.045092624,0.052086446,-0.15548831,0.5965873,-0.28603604,-0.2578566,0.0019118575,0.29764596,0.23254964,0.29919562,-0.6698308,0.3409289,-0.13874885,-0.076311916,-0.21530312,0.19879404,0.03298988,0.2260362,0.30934823,0.05893497,0.037164856,-0.22785003,-0.055331536,0.004904232,-0.3356197,0.086677894,0.4529955,0.031358,0.38066348,0.037918817,0.18672782,-0.36882553,0.5242803,0.54347813,-0.19232963,-0.23585884,0.09495281,0.38787535,0.27449855,0.42297795,0.11383105,0.21946181,0.44132105,0.1391978,0.45201254,-0.1848507,0.12345517,-0.17322248,-0.35002849],"bias":[0.008789554,0.0036365485,-0.020062707,-0.035357453,0.031049518,0.0187513,0.012577473,-0.027655628]}