{"weight":[-0.08844413,-0.013785824,-0.09177959,-0.01755123,0.015827594,0.09219762,-0.053474534,0.04418938,-0.041329604,-0.04636581,0.045579236,0.06775253,-0.0029043516,-0.1117631,-0.061579585,-0.0053217104,0.070189856,0.06789596,-0.015460602,0.028292313,0.08084959,0.03210056,0.09990815,-0.033448916,-0.06978522,-0.007754654,0.00857876,-0.014171116,0.04497741,-0.066866234,0.030364616,-0.0107780015,-0.048966452,-0.03805124,-0.10663392,0.05302965,-0.04561673,0.07358959,0.036742248,0.010182761,-0.030125553,0.017331991,-0.029694485,-0.027485095,0.008044876,-0.041686285,0.013601077,0.053474974,-0.023749087,0.06232956,-0.067197986,0.0070155244,-0.010650196,-0.019152964,0.0066050743,0.0048330263,0.07385789,0.01965864,-0.06742864,0.02298313,0.084454276,-0.04579407,-0.14799745,0.053519472,0.025166264,-0.022351433,0.015980478,0.027330246,0.021885026,-0.0036446983,-0.005701921,-0.069225766,0.124998115,-0.10570087,-0.0054638027,0.10938281,0.018309422,-0.14108975,0.081020646,0.111152604,0.11299116,0.07709874,-0.0068211164,-0.04271308,0.08165388,-0.018977374,0.051952124,-0.047017813,0.046947483,0.055789832,-0.09583011,-0.041765682,-0.010052108,-0.029606024,-0.04280309,-0.025728136,0.06345505,-0.007854457,0.027590385,0.0030688297,0.004270928,-0.016590923,0.18640855,0.09099109,0.0579771,-0.00006396253,0.039770026,0.07485597,0.009478506,0.21980768,-0.035384245,-0.0073938,-0.09103673,0.017514942,-0.0075688227,0.007556947,0.10533987,0.0490095,0.06345713,0.032403618,-0.031795368,0.09110645,0.024457732,-0.03945846,-0.05051622,0.025284389,-0.036241196,-0.030209742,-0.0724161,-0.17095087,0.033674393,-0.06646758,0.0018054612,-0.007816111,-0.10445472,0.10472695,0.061720066,-0.016483799,-0.052380033,0.07119537,-0.10018155,-0.013225442,-0.17909956,0.121892035,-0.066442005,0.0142149385,0.015000544,0.034410257,0.043512434,0.031425398,0.012646994,0.06324764,-0.036820598,0.037598148,-0.12273033,0.11411185,-0.10979333,0.11988451,0.03646319,-0.02786615,-0.039064806,-0.026523408,-0.0057976805,-0.077357255,-0.07803026,-0.040423263,0.0058707385,-0.0027664804,0.0019685866,-0.021964567,0.054206654,-0.14574173,0.05464982,-0.11824969,-0.07532278,0.08095113,-0.065184,0.026617091,-0.053192813,0.023094922,-0.0003192084,-0.052821085,-0.058010437,0.01366501,-0.069406696,0.020054981,-0.021092033,0.049307406,0.12908232,-0.005768251,0.12192975,-0.0035450852,0.012533619,-0.043855824,0.0315391,-0.05885919,0.12684834,0.0052850577,-0.026403457,0.111441776,0.019916765,0.008420644,0.027099928,0.05185195,0.023533884,-0.016440473,0.041981313,0.02877355,-0.07298084,0.025276523,0.10550153,-0.053424038,0.050253954,0.008571292,0.10650358,-0.071276836,-0.06704856,0.07187436,0.031436183,-0.07165127,0.0060806535,-0.05863662,0.05014982,0.027271906,0.107299425,-0.05353215,-0.041228466,0.031103885,-0.07876606,0.056450553,-0.010347273,-0.095507935,0.0051389923,0.09021961,-0.082829736,0.10046442,0.12039642,0.16432947,0.009248189,0.053592987,0.026181126,-0.030457048,-0.01919482,0.02533868,-0.03822594,-0.03389023,0.0020687536,-0.055353742,0.082005166,0.03509634,-0.0061495984,0.07839584,0.0039829677,-0.026336743,-0.10134765,0.04797602,-0.03136217,0.11477114,0.10635619,-0.07212173,0.0050703273,0.013851212,-0.06851287,0.052948426,-0.06241246,-0.030439766,-0.025023254,-0.00033772617,-0.02507385,0.13169871,-0.06571212,0.08274644,-0.057233986,0.03480727,-0.1414567,0.053062372,-0.0843655,-0.04533488,0.03599906,0.042041004,-0.046107683,0.021927483,0.010359907,0.0058845286,-0.037418485,-0.03237063,-0.07181513,0.08148992,0.047569487,-0.06262709,0.0009911476,-0.03746253,-0.061859224,0.02865839,0.05322005,0.094777755,0.0727114,-0.013450173,0.11059182,-0.041187145,-0.0067338757,-0.026736163,0.03250763,0.01203899,0.061428193,0.04945853,-0.06329873,-0.03826385,-0.040459108,0.01745378,-0.21323296,0.060299862,0.032600645,0.02409637,-0.11208801,0.04839407,-0.06743066,0.09990191,-0.0381982,0.08525362,-0.1439652,-0.006495504,-0.0062334347,-0.016127527,-0.012853795,-0.09548958,0.035992388,-0.09078106,0.08673692,-0.018898152,0.009250469,-0.04682609,-0.09920535,-0.11392973,-0.0135965925,0.07893119,0.075248964,-0.09273553,0.124005675,-0.07964009,-0.06136143,-0.07768916,0.029328367,-0.21236038,0.0049245656,0.031102102,0.06505467,-0.08824632,-0.038562592,-0.03473119,-0.06265372,-0.0073054885,0.039340872,-0.01581177,-0.013586752,-0.035766162,-0.061908416,-0.05597584,-0.0020350039,0.1548859,-0.050472494,-0.09075782,-0.095126785,-0.008349806,-0.05686207,0.023048533,-0.01754336,0.04717047,0.0128659215,0.014529025,0.039112523,0.074761264,-0.005820493,0.08732446,0.009113122,0.010847184,-0.023579441,0.10993944,-0.016882382,-0.008052951,0.06896833,-0.031202303,-0.03323139,-0.07322772,0.016450448,0.006402892,0.11378725,0.09191663,0.1286164,0.007957348,0.115609035,0.04312906,-0.053942267,0.09128383,0.04353043,-0.037334226,0.023430226,-0.03859983,-0.06565135,0.0882439,0.046616454,0.04682398,0.05251201,-0.032878343,-0.07889106,-0.035401754,-0.015296843,0.020453567,-0.018783323,0.010345922,0.009544254,0.013912587,-0.124662876,-0.05367985,0.12264368,0.026085379,0.012385451,-0.0685059,-0.06873504,0.1278482,-0.053781323,-0.07511239,-0.0722233,-0.009529361,-0.17482656,0.015064089,0.053499345,0.0703432,0.04822558,-0.128622,-0.10914041,0.01728919,0.050729357,-0.045654275,-0.019748831,0.0975446,-0.012316427,0.01280922,0.13624659,0.056993116,0.10508368,0.05385313,0.096571416,-0.044540804,0.095377475,-0.031098783,-0.019793361,-0.04834734,-0.11644175,0.0011444853,-0.0142618455,0.021955831,0.090643,0.022907833,0.03621081,-0.022444358,0.08575713,-0.005781288,-0.039924502,0.0006050847,0.010631865,-0.0523877,-0.024581933,0.03440877,-0.044905305,-0.0039910907,-0.09765565,0.09333789,-0.041318692,0.11066911,0.02833421,0.07460548,0.03882349,0.06562116,0.04650793,0.047990452,0.069552004,-0.055218756,0.06431682,0.10894049,0.030969964,-0.1431232,-0.08307314,-0.035910703,-0.03487882,0.054034714,0.00015338932,0.058948122,0.02470878,-0.049064457,-0.05414515,-0.0027675536,0.034248702,0.0096751815,0.0227002,0.007934634,0.021385998,0.05077008,0.05451652,-0.025633167,0.037871253,0.012922913,0.019863108,-0.06349635,-0.07566402,0.001748395,0.064598486,-0.012985484,-0.036183678,-0.008723599,-0.010715317,-0.0038407296,-0.04047027,-0.0016933877,0.050898563,0.058206476,-0.13298492,-0.06986016,0.03202948,0.035160966,-0.0644533,0.028809765,-0.029199386,0.0051341574,0.057879463,0.01734953,-0.059853762,0.027364027,-0.03441596,-0.06670542,-0.057901077,-0.12546438,0.09652732,0.02426385,0.003984956,0.14898816,-0.005277304,0.060294274,-0.038548626,0.05606956,0.03238062,-0.011783485,-0.15137126,0.0046954853,0.056517705,-0.0788831,-0.09024997,0.025276955,0.013189902,-0.008622338,0.02935289,0.02999682,0.012822092,-0.10568384,0.0025091593,-0.014787215,0.071925454,0.048158765,0.046552684,-0.087683246,-0.075679205,0.030372228,-0.099271856,0.04285625,0.031166205,-0.009585949,0.003244042,0.033677705,0.09692018,0.059954043,0.031834666,-0.097986266,-0.05861138,0.045600545,-0.034957025,-0.06306854,0.08319221,0.020075412,-0.0027601498,0.020085787,0.011762183,-0.10722504,0.097583994,0.07536044,0.007108121,-0.08266971,0.11265939,0.03368482,-0.020357687,0.03953178,0.015384645,0.105902955,-0.030230071,-0.059339892,0.04975152,0.030346224,-0.12424999,-0.01756037,0.010490966,-0.04316489,0.03938239,0.021421418,0.022079013,0.108310826,0.04464848,0.0042129406,-0.041621216,0.05471869,0.17298044,-0.08620363,-0.00046296752,0.072099134,-0.11330168,0.026283631,-0.055424422,0.047091167,-0.010574778,-0.04814356,0.08167601,0.011979497,0.033520125,-0.011495292,0.07066543,0.050413493,-0.12080095,0.022563638,0.030106971,-0.046961695,0.07522103,-0.0633548,0.03264068,0.095190674,-0.07916757,0.047754463,-0.00023107839,0.079102375,-0.055962566,0.041384343,0.04251765,0.016184269,-0.02730438,-0.014253429,-0.005689633,0.1739926,0.0275701,-0.10679289,0.10243948,-0.05420019,-0.03416619,-0.007822539,-0.010034165,0.036011346,0.03092429,-0.06666977,-0.035333153,0.086286835,-0.08873414,0.015778933,-0.05392287,-0.12533528,-0.08351803,-0.024350481,0.101364374,0.025969451,-0.040726457,0.11390397,-0.070415266,-0.029594349,-0.019981662,-0.026436953,-0.05360672,0.052811358,0.0780519,0.05207587,-0.025992597,0.031587254,-0.000013665924,-0.049824346,-0.036885317,0.055719145,0.092032045,-0.026306229,-0.06948069,0.038360205,-0.064234816,0.04277816,-0.008343577,-0.015724152,0.094163366,0.08233845,-0.09962695,0.07994736,-0.14250843,-0.0768659,0.014922639,-0.08784133,0.14901008,0.15922208,0.0008510608,0.02779872,-0.017173363,0.019788615,-0.05603161,-0.005404671,-0.06996343,0.011465449,-0.008126972,0.0770011,0.048713826,-0.07213278,-0.13442683,-0.11841124,0.08698343,0.05939604,0.079047665,0.036394153,0.10914466,-0.09506828,0.033702623,-0.043060523,-0.023171984,0.0753382,-0.078817114,-0.09898069,-0.0018662285,-0.084769696,0.06457258,0.038952246,0.015427198,0.015874311,0.036406063,-0.014813382,-0.0025990834,-0.0020697871,-0.021512654,-0.05538084,-0.07788633,-0.008965388,0.02823711,0.08400439,-0.08717586,-0.07410452,0.034868054,-0.0305494,-0.10397855,-0.09952022,0.018055642,0.12041258,0.036110673,-0.019582095,0.018901033,0.014574632,0.07691087,0.043670036,0.03182809,-0.04121971,-0.117378876,0.052466027,-0.015687076,-0.01914937,-0.047175903,-0.06626939,-0.0070136897,-0.008557323,0.03569351,0.014636471,0.01910417,0.08708657,0.07302965,-0.13716678,-0.021300228,-0.030444784,0.04640498,-0.04278189,-0.013952261,-0.028773401,0.0018635432,-0.037373513,0.03844063,0.01985052,-0.05786874,0.045681346,-0.0019618564,0.088048525,-0.021463757,-0.049672794,0.0981819,0.097151786,0.0332085,-0.016687829,-0.024437701,-0.1076882,-0.04756187,-0.045414712,0.03130799,0.06817861,0.021709567,-0.0511192,-0.006352427,0.032357518,-0.009838322,0.040624384,0.002684784,0.051515374,-0.01744969,-0.10179025,0.08130633,-0.019512447,-0.12742631,0.07140879,-0.016677566,0.08951319,-0.051238894,-0.054641064,0.044981614,-0.06405492,-0.04648979,0.15392512,0.019841745,0.008241064,0.09447881,-0.007988637,0.046780933,0.029713744,0.023479594,-0.1409416,-0.022802703,0.026575375,0.07992446,-0.10445348,0.011489713,0.010341383,-0.031803574,0.1708653,-0.033081863,0.06512745,0.023195982,-0.013010915,-0.10299034,-0.0077511594,-0.069733515,0.0243891,0.052065697,-0.06783189,0.03320423,-0.04236443,0.07026022,-0.03975378,-0.027557185,0.0026365747,0.049703997,-0.00011967054,0.023295358,-0.022634834,0.07059569,-0.0063943258,-0.033015836,0.0791604,-0.024510602,0.08728081,0.05757198,-0.027005928,0.09675134,-0.07331492,0.013462858,0.16206917,0.04049902,-0.010388631,-0.03317351,0.07776878,-0.0038262382,-0.044421513,0.093481734,0.059592832,0.19842857,-0.038832847,-0.034801926,0.13065705,-0.028916981,0.035736345,-0.049368583,-0.09983492,-0.0047873748,-0.048292454,-0.12429988,0.079807974,-0.080786064,-0.039307196,-0.09607067,0.023677131,-0.040032797,-0.048220396,0.041728806,0.09304933,0.029783491,0.054625716,-0.012942076,0.022683928,0.02686141,-0.049193356,0.05677825,-0.049376067,0.059836056,-0.024896415,0.037085354,0.116739035,0.044734914,-0.012799285,-0.16939615,0.03987604,0.038207892,0.059782445,-0.016920919,-0.1288584,-0.07874926,0.016402429,-0.015336107,-0.028213428,-0.01696843,0.008335863,0.050903436,0.10866438,0.019755743,-0.047542334,-0.072641976,-0.021975689,-0.052569203,-0.059321098,-0.0967145,-0.08285275,0.052281935,0.07264618,-0.00943693,-0.040487263,0.096597,-0.0073306165,-0.04005777,0.07804599,0.020832775,-0.09479341,-0.08115768,0.0072646746,-0.060928587,0.032235138,0.08600284,-0.04169656,0.14815839,-0.02417236,-0.07253659,-0.11657224,-0.106267065,-0.025616307,-0.056374002,-0.034754217,0.01763511,-0.06362791,0.008500252,-0.02816121,-0.08421977,-0.004041126,-0.07281507,-0.004753627,-0.021243995,0.011346757,-0.12920767,0.06948801,0.14440517,-0.13963248,0.0021089935,0.059621982,0.044641733,-0.017212812,-0.054356556,0.013914056,0.07819022,-0.10354833,0.018729037,0.01245834,-0.12128941,-0.004522544,0.12405305,0.10834521,-0.119500145,0.1099513,-0.022220299,0.0143625345,0.029076234,-0.032985672,-0.09850172,0.12180413,-0.016292842,0.12665279,-0.07782391,0.07132359,-0.025243415,-0.019798579,0.057429723,0.03216915,0.036545828,-0.07229265,0.13617422,0.02721619,0.041233085,-0.0020575712,-0.017917125,-0.024771322,-0.022313759,0.07517122,0.03574288,-0.04666693,0.03767727,0.01151243,-0.09022886,0.019154122,0.009683787,0.03590556,0.06270439,-0.123166464,-0.07214318,0.05793383,0.0132848015,-0.047564086,0.022579134,-0.05056038],"bias":[0.00039453479,-0.0003945223]}