{"weight":[0.035951775,-0.02500274,-0.006828548,0.037789192,0.058553565,0.0140168555,-0.056516204,0.04647467,0.014516586,-0.027908863,-0.063769124,0.03424697,0.11221797,0.06546952,-0.030809224,0.07588305,0.09201669,-0.041976795,-0.036641344,-0.06825484,0.06649693,-0.024545146,-0.06685756,0.02433641,-0.07083309,0.0033462348,0.092519544,0.009260405,0.030190844,0.13768838,0.009091031,-0.083547235,0.006337315,-0.023846442,-0.065236434,-0.099773355,-0.014437372,-0.09665741,0.024156757,-0.0045698043,0.0069645406,0.08097944,-0.09336057,-0.031966906,0.01535892,-0.009917422,-0.02398516,-0.02793635,-0.007631118,0.09358978,-0.0064966003,0.07558548,-0.045301564,0.045988698,-0.06843617,0.06787798,-0.09597331,0.007801136,-0.08959074,-0.057405856,-0.050190326,0.020008018,0.06696502,-0.026649777,0.019034356,0.04516512,0.07964182,0.013305969,0.086401716,-0.044121202,0.032567956,0.051095866,-0.06882977,-0.0080475295,-0.03711031,0.064914085,-0.099656224,0.0026551113,0.014297318,0.047817234,0.048954204,-0.05743337,-0.068197936,0.008378188,0.020469988,-0.06414966,0.01065782,0.056053746,-0.048123766,0.040557362,0.021257697,0.02722956,-0.09385314,-0.048087697,0.14195769,-0.031927746,-0.06282556,-0.008022898,-0.041321326,-0.024308624,0.028217992,0.0013611125,-0.008574346,-0.017679693,0.115745395,-0.08040151,0.061833628,0.10718733,0.08299948,-0.037162066,-0.23721711,0.009408963,0.019025978,0.06261371,-0.017148407,0.032620702,-0.044709478,-0.04316319,0.0008107064,-0.10252186,-0.028438693,0.0073792664,-0.06866532,0.077790365,0.023951467,-0.04894137,0.0014094025,0.026795529,-0.014258632,0.0867095,0.11520002,0.09374963,-0.012495913,0.11995732,0.046504743,-0.046370253,-0.016358359,0.035320837,-0.012222219,0.105978616,-0.07616671,-0.018986378,-0.102366686,-0.026428502,0.037594974,-0.05328914,0.097224444,-0.10429919,0.111575566,0.060432386,0.0021170352,-0.11792182,0.0055882507,-0.04656767,-0.059852358,0.13092153,-0.004973996,0.03437345,-0.07771387,0.05025921,-0.043652773,0.028969506,0.023088736,0.08565207,-0.06535989,0.09766388,-0.09767765,-0.022433424,-0.0055716676,0.0604024,-0.041942377,-0.0060456055,-0.078423366,-0.0119776605,-0.032972742,-0.09716277,-0.013932738,0.047409207,-0.011001897,0.056663085,0.006146592,-0.02609834,0.12011855,-0.19919163,-0.029229866,0.035732836,-0.07417002,-0.01310316,-0.03403304,-0.008381249,-0.032432377,0.020128272,0.036101166,-0.013497264,-0.120520376,-0.029775625,0.027245356,0.05899591,0.10663566,-0.16945684,0.08102341,0.011606079,-0.06458196,0.0294636,-0.03581455,-0.030519111,-0.051260065,0.0039260816,0.07268722,-0.14195132,-0.096073516,-0.034762897,-0.13816547,0.04089047,0.035652697,-0.13374163,-0.08177597,0.026132317,0.027402254,0.004841942,-0.102640994,0.0065912697,-0.03625872,0.012454998,0.015116242,-0.013130046,0.024418287,-0.09352636,-0.05700223,-0.09367635,0.0037060136,0.049729638,-0.011272343,-0.018609162,0.10183919,-0.026226839,-0.02920156,0.05517591,-0.049394805,0.091434024,-0.08148807,0.0037186458,-0.018060252,0.009002796,-0.0934481,-0.0013009448,0.014515952,0.15060426,-0.06863316,0.08175332,-0.07628382,-0.0028113916,0.003906357,0.11692048,-0.10829403,0.09764801,-0.07938049,-0.031083487,-0.14417012,-0.07903911,0.007096338,0.060699143,-0.15499929,-0.06166085,0.049562737,0.05231205,0.11604746,0.062179662,0.016343134,0.058015168,-0.020811552,0.038052253,0.015735425,0.10226442,-0.105924726,-0.07082136,-0.028245682,0.029146181,0.0396048,-0.05735284,-0.021331634,0.07960847,0.093578346,-0.064403325,0.005277112,0.019268673,0.037831284,-0.10207688,0.12251764,-0.015353675,0.11614193,-0.016119767,0.012003788,-0.07016317,0.012361814,-0.029378392,0.0062566567,0.05588246,-0.03802745,0.14533977,-0.11442816,-0.015083739,0.029874861,-0.047390953,0.06259116,0.10772176,0.06727825,-0.033305123,-0.19623148,-0.016099585,0.088244535,-0.07748726,0.05273881,-0.10586442,-0.0369988,-0.023999033,0.0111371325,0.05528302,-0.08433982,-0.024645949,-0.0056001316,0.031955596,0.00019597504,-0.0311066,0.005614172,0.018264858,-0.038016297,-0.02992339,-0.039471723,0.09808963,0.08567019,-0.05793124,-0.013397034,0.016379666,0.08119498,0.024117626,-0.019114839,-0.053146612,-0.15983647,0.034375664,-0.027561927,0.05541631,-0.08976678,0.022781769,0.095947474,0.04947819,0.0193166,-0.092662536,-0.046359904,0.1661558,0.006506924,0.07550763,0.013013164,-0.036150817,-0.072826885,0.00053701387,-0.03237697,-0.117911324,-0.061975125,0.022503605,0.002380352,0.060747765,-0.084498465,-0.05469916,-0.011053478,0.029569281,0.014887924,0.06637673,0.13940255,0.051964194,-0.0072712423,0.0031549481,-0.03646693,0.061015446,-0.06463908,-0.063167535,-0.08996585,0.098141685,0.114006415,0.11649485,-0.02839385,0.062527955,-0.07014302,0.09159945,-0.102764875,0.0753266,0.1202916,-0.05296507,0.024372647,-0.0038786824,-0.09152766,0.12883824,-0.003281194,0.04427569,-0.012600946,-0.078769855,-0.1693122,0.00032572282,0.034816414,-0.015248797,0.004960936,-0.028929787,-0.0050440207,-0.0017771663,-0.06553428,-0.019302173,0.04881949,0.022998355,0.024387296,-0.085560806,-0.058741517,0.084297664,-0.145357,-0.034744583,0.029068671,0.054296162,-0.06149478,0.10516968,-0.010900321,-0.049089547,0.030870384,-0.023384228,-0.06773032,0.040607873,-0.05455091,-0.08577847,0.0297065,0.12375494,0.06443537,0.046424743,-0.09920725,-0.018892614,0.06855033,0.14407647,-0.02185071,0.024247896,-0.026337484,-0.048720736,-0.12974074,-0.113411665,0.054468382,0.083384074,-0.090381116,0.010896638,-0.0018721514,0.011736551,-0.005597041,-0.044549394,0.0031629046,0.0041249064,-0.03480985,-0.122232296,-0.042276733,0.04904124,-0.034286298,-0.041666247,-0.06032679,0.11211328,-0.049357463,0.04359653,-0.1301451,-0.0040452126,-0.066779904,0.1252285,-0.013991726,-0.057212982,0.11708351,0.001266086,0.054500837,-0.033320274,0.021359768,-0.010851907,0.021523574,-0.048451938,-0.043825768,0.031266227,0.047791723,0.051978398,0.0008864803,-0.02090732,-0.0644038,0.04060472,-0.06330896,0.11216894,-0.031872403,-0.100600086,0.0931068,0.013128428,-0.0440175,-0.033589736,0.13129601,0.07007943,-0.019611321,0.042144205,0.08666003,-0.022945406,0.034468487,-0.011962723,0.0018888669,-0.07992006,0.03494004,-0.050207645,-0.026637964,0.018804904,-0.051906936,0.0062348354,-0.046233248,-0.007062609,-0.009599914,-0.008424131,-0.11734157,0.0059357914,-0.09750826,-0.02604536,0.042850714,-0.04600458,-0.101536915,-0.014663104,-0.033814624,0.018189535,0.0702656,0.03421608,0.044703916,0.007817583,-0.1377055,-0.039406657,0.030137459,-0.032610074,-0.109212644,0.011743944,0.019614512,0.04323918,0.07016274,0.06756105,-0.047586773,-0.033406444,0.028847428,0.029012911,0.1594537,0.011368885,-0.07734291,-0.00021231628,0.001071136,0.049019527,-0.033773877,0.037258253,-0.020398557,0.0035991922,-0.07670605,0.0126127405,-0.004083,0.093858466,-0.017447531,-0.010907193,0.06365021,-0.10353216,0.054468848,-0.14276734,0.14192303,-0.045689613,-0.035442054,-0.068546474,0.055496175,0.06210664,-0.008224779,0.12496987,0.08002716,-0.02285524,-0.061650127,-0.010679303,-0.07691291,0.074493594,-0.038223337,0.08396084,-0.05863768,-0.027626596,0.0094199125,-0.030379169,0.074345015,0.0035486966,-0.10828354,-0.04023309,0.04524011,-0.07114583,-0.021689901,-0.085352354,-0.12155905,-0.07480632,0.026898326,0.005784679,0.0061894953,-0.023929486,-0.006561149,0.006311823,0.0974727,0.114828035,-0.108051814,0.17447159,0.037937045,-0.10358857,0.033553593,0.001449134,-0.05116256,-0.17097504,-0.08077155,0.046200957,0.07124989,0.032832135,-0.021570116,-0.06285848,0.013348394,0.048265316,0.00795532,-0.029499128,-0.005832497,0.080744036,-0.12607977,0.075468786,-0.0957768,0.008651677,-0.0011236749,-0.024619866,-0.0141823655,0.06414654,-0.0026118837,-0.021517085,0.06545763,-0.043284126,-0.07453755,-0.013470593,0.16410246,-0.08586838,-0.008035648,-0.015444555,0.0061995974,-0.16883352,0.0124317175,0.041701622,0.004202498,-0.036678486,0.06620105,0.103911616,-0.12771821,-0.092990875,0.12410397,0.015779478,0.020393211,-0.104863875,0.00017582212,0.08667412,0.022434866,0.024531543,-0.07602552,0.028746966,0.08856574,-0.10453951,0.0038184733,-0.051549695,0.0125517,-0.076139525,-0.02620862,0.09593814,0.028545674,-0.14421985,0.0009555332,0.081910804,0.046974275,0.13016409,-0.07787118,0.0019320094,0.066102095,-0.054581422,-0.14899766,0.0028000996,-0.004466932,0.117541954,0.13447553,0.067872256,0.06809027,0.0017110354,0.088652395,-0.024065174,0.14622724,-0.0017380387,0.0012222086,-0.030399041,-0.02234395,-0.018419245,-0.019659955,0.09905792,-0.10634086,-0.044359528,0.02018626,0.0043629124,0.014201655,0.11789686,-0.03297786,0.057110757,-0.0073081483,0.0135950595,0.005621318,0.050501604,-0.046006713,-0.0031703897,0.042071477,-0.04141575,-0.0698387,-0.036848582,-0.029796692,0.08319518,0.043298468,-0.027652314,0.009781328,-0.01327567,-0.030605404,-0.04698101,-0.030954432,-0.0037736234,-0.10860034,-0.045543004,-0.014252001,-0.10853459,-0.022173947,0.021869238,0.006941084,0.03813506,0.051833984,0.016904581,-0.021215403,0.018415818,-0.048353527,-0.035252787,0.07586625,-0.037187323,0.035782725,-0.09669594,-0.037119806,0.0009305448,-0.023220183,-0.14130364,0.06859292,0.0013135741,-0.033110354,-0.087676436,0.019254955,0.03619513,0.0642618,-0.015883524,0.0891016,-0.038939256,-0.16762,-0.0007276449,0.1416661,0.05697542,0.048567906,0.0047298972,-0.004717812,0.04760278,-0.092364624,0.07344081,0.06361765,0.028969754,0.038199652,0.061319657,0.0155885415,0.029629933,-0.04705061,0.029958973,0.056917086,0.0074923523,-0.028247965,0.11885218,-0.06682979,-0.08316968,0.05114459,0.03229428,-0.06943685,-0.1433144,0.015081329,0.0015271858,0.04480612,0.06249977,-0.10311321,-0.09504109,-0.0047818455,0.03670159,0.088952854,0.15867776,-0.14044125,-0.058052324,0.06051317,-0.026549475,-0.08064114,-0.01858733,0.05592403,-0.008093662,-0.019344876,0.09058593,0.022925552,-0.11148724,-0.12693153,-0.027484898,0.088253655,0.015446058,-0.079828545,0.038044024,0.09326692,-0.047268942,-0.0025914046,0.058093578,0.08889099,0.050499476,0.07191098,-0.0044967793,-0.0023371035,-0.09193318,0.0028906167,-0.046708338,0.12763932,0.03463679,-0.028578378,0.074126735,0.034171,0.006195271,0.097400874,0.043244652,-0.047187995,0.06550264,-0.06719098,0.020534692,-0.028259153,-0.030444626,0.037133068,0.03895943,0.04080188,0.0074678143,-0.03494847,0.088183925,0.035780553,-0.09882162,0.060356263,0.12037437,-0.028077506,-0.015012604,-0.0696951,0.009045578,-0.10324016,0.14756498,0.1412588,-0.04353696,0.0031027168,0.00014566926,-0.023606168,-0.03348566,0.12479171,0.022698198,0.058671623,-0.06515729,-0.036282267,0.13665459,-0.098529145,0.15365726,-0.0019975763,-0.030058628,-0.020187926,0.11889411,0.025459025,0.12894382,-0.17277224,-0.007392082,0.0015682065,-0.07029797,-0.05857223,0.059704773,0.1106054,-0.023627963,0.017343733,0.052330106,-0.018501094,-0.07584124,0.0020577512,0.041784436,-0.05618985,0.04492502,0.08457905,-0.021906678,-0.123769075,0.024543326,-0.02363565,-0.035577677,0.020819526,0.11840326,-0.0053124367,0.044725135,-0.006190244,0.007890278,0.036280084,0.0043647024,0.0071012755,-0.061035097,0.08085817,-0.131528,0.07390788,-0.013338695,0.0026227785,-0.061980836,-0.009677133,0.01852907,0.02476127,-0.04983705,0.033742115,0.053247973,-0.10399885,0.04147983,0.034719687,-0.15971656,-0.022704344,-0.045612197,-0.036007848,-0.017635345,-0.027178975,-0.16594017,0.049621046,-0.14976224,0.10357338,0.046824668,0.054748308,-0.002363869,0.047867674,-0.0847338,-0.06607883,0.044291377,0.05112165,-0.007875031,-0.0640664,-0.092640705,-0.11793615,-0.02904404,-0.027071305,0.11890071,-0.044024657,0.1977524,0.061063807,0.037959028,0.013874382,0.1929913,-0.02660863,0.0836391,-0.0711847,-0.06839221,0.032331064,0.069209,0.10347193,-0.081306316,0.021763211,-0.08352941,-0.0280403,-0.15126091,0.11165967,0.055078622,-0.021681098,0.06758759,0.0070674736,0.0027467785,-0.02425267,0.02850935,-0.034206096,0.049495105,0.0028088256,-0.096531436,-0.024881529,0.07050368,0.052343898,-0.059409127,0.022092557,0.002990574,0.03250109,-0.08650552,-0.081245035,0.06660831,-0.033912413,0.005914311,-0.04456288,-0.004627655,0.03476938,-0.07921721,0.047375925,-0.11527168,-0.06050794,0.015988784,0.01671923,0.035982005,-0.06039516,-0.009838377,0.11172388,0.0029388035,-0.041051313,0.0035663228,0.137029,0.14134689,0.10419474,-0.050424717,0.059784073,-0.083486654,-0.00022647815,-0.020509794,0.054472484,-0.07719454,-0.05461756,0.07920774,-0.023601139,-0.090505496,0.02049716,-0.04517241,-0.014206766,0.10547463,0.03825876,0.08950721,0.019831045,-0.08844657,0.018906416,0.015095314,0.07647537,-0.0284933],"bias":[0.00059221644,-0.00059219904]}